[
  {
    "weights1": [
      -0.04264096,
      0.48461094,
      0.3437219,
      -0.18991429,
      0.023437265,
      -0.035809647,
      0.02021788,
      0.023832265,
      -0.08223877,
      0.047008492,
      0.03617064,
      -0.08045348,
      0.32808998,
      0.04190792,
      0.08066577,
      0.02341292,
      0.00056377053,
      0.03862206,
      0.107386604,
      -0.19822031,
      0.039172858,
      0.23617977,
      -0.40486738,
      -0.07227099,
      0.038909033,
      -0.05335085,
      0.016240723,
      0.062464695,
      0.05084435,
      0.12681052,
      0.29592872,
      -0.020266376,
      0.16472764,
      -0.1495584,
      -0.031247718,
      0.21042518,
      0.004292651,
      0.11763596,
      -0.0057659834,
      0.00042696178,
      -0.11026306,
      0.08097269,
      0.0075239437,
      -0.012906939,
      0.021243224,
      -0.56120646,
      -0.02827642,
      -0.2096028,
      -0.17961013,
      0.04604166,
      0.022411548,
      0.038322847,
      0.3821314,
      -0.11665035,
      0.06448008,
      0.0029881564,
      0.028613549,
      0.030447587,
      0.20421185,
      -0.09851462,
      -0.024780603,
      0.24149856,
      -0.25745544,
      0.22952148,
      0.08851161,
      0.22829111,
      -0.004103361,
      -0.01894372,
      0.18999876,
      0.1296062,
      0.2206024,
      0.18121001,
      0.12520775,
      0.053595304,
      0.08122459,
      0.2603385,
      0.120341405,
      -0.02559407,
      0.3505068,
      0.048714273,
      -0.4316522,
      0.16131823,
      -0.1916326,
      0.16663824,
      -0.4393026,
      0.022905963,
      -0.0068008993,
      0.1567759,
      0.2010562,
      0.049779754,
      0.108658426,
      0.9577547,
      -0.31799954,
      0.098448075,
      -0.19779514,
      -0.044277795,
      0.10785023,
      0.18324444,
      -0.3434965,
      0.50419396,
      -0.10473416,
      0.1924592,
      -0.03793969,
      0.17047471,
      0.24505314,
      0.057382237,
      -0.39659882,
      -0.0051036812,
      0.3700626,
      -0.05550249,
      -0.10982597,
      0.00525829,
      0.1432317,
      -0.06544118,
      0.21760511,
      -0.25801066,
      0.09616004,
      -0.10300988,
      -0.011531442,
      -0.10300824,
      -0.16290341,
      0.11019373,
      0.054870784,
      0.059000496,
      -0.26398414,
      0.022120407,
      0.12179026,
      -0.23261029
    ],
    "weights2": [
      0.11383364,
      0.4143816,
      0.28517655,
      0.34240046,
      -0.14913745,
      0.38859087,
      0.11412494,
      0.29525426,
      0.098160096,
      -0.14881185,
      0.49580932,
      0.07832366,
      0.21782202,
      -0.19103166,
      -0.48131612,
      -0.12833102
    ]
  },
  19944.0,
  {
    "games": 40,
    "score": 352.0,
    "winner_count": {
      "player0": 29,
      "player1": 11,
      "draw": 0
    }
  }
]